digraph Tree {
node [shape=box, style="filled, rounded", color="black", fontname=helvetica] ;
edge [fontname=helvetica] ;
0 [label="Number_tested <= 2897.0\nmse = 1164.819\nsamples = 40\nvalue = 27.325", fillcolor="#e5813949"] ;
1 [label="Number_hospitalized <= 131.0\nmse = 146.418\nsamples = 28\nvalue = 6.714", fillcolor="#e5813912"] ;
0 -> 1 [labeldistance=2.5, labelangle=45, headlabel="True"] ;
2 [label="Number_confirmed <= 38.5\nmse = 12.76\nsamples = 23\nvalue = 1.609", fillcolor="#e5813904"] ;
1 -> 2 ;
3 [label="Number_hospitalized_sq <= 10.0\nmse = 0.139\nsamples = 18\nvalue = 0.167", fillcolor="#e5813900"] ;
2 -> 3 ;
4 [label="Number_tested <= 1.5\nmse = 0.062\nsamples = 15\nvalue = 0.067", fillcolor="#e5813900"] ;
3 -> 4 ;
5 [label="mse = 0.0\nsamples = 7\nvalue = 0.0", fillcolor="#e5813900"] ;
4 -> 5 ;
6 [label="Number_tested <= 2.5\nmse = 0.109\nsamples = 8\nvalue = 0.125", fillcolor="#e5813900"] ;
4 -> 6 ;
7 [label="mse = 0.25\nsamples = 2\nvalue = 0.5", fillcolor="#e5813901"] ;
6 -> 7 ;
8 [label="mse = 0.0\nsamples = 6\nvalue = 0.0", fillcolor="#e5813900"] ;
6 -> 8 ;
9 [label="Number_confirmed <= 13.5\nmse = 0.222\nsamples = 3\nvalue = 0.667", fillcolor="#e5813902"] ;
3 -> 9 ;
10 [label="mse = 0.0\nsamples = 2\nvalue = 1.0", fillcolor="#e5813903"] ;
9 -> 10 ;
11 [label="mse = 0.0\nsamples = 1\nvalue = 0.0", fillcolor="#e5813900"] ;
9 -> 11 ;
12 [label="Number_hospitalized_sq <= 9888.5\nmse = 23.76\nsamples = 5\nvalue = 6.8", fillcolor="#e5813912"] ;
2 -> 12 ;
13 [label="Number_hospitalized_rt <= 5.933\nmse = 15.25\nsamples = 4\nvalue = 8.5", fillcolor="#e5813917"] ;
12 -> 13 ;
14 [label="Number_hospitalized_rt <= 5.038\nmse = 6.25\nsamples = 2\nvalue = 5.5", fillcolor="#e581390f"] ;
13 -> 14 ;
15 [label="mse = 0.0\nsamples = 1\nvalue = 8.0", fillcolor="#e5813915"] ;
14 -> 15 ;
16 [label="mse = 0.0\nsamples = 1\nvalue = 3.0", fillcolor="#e5813908"] ;
14 -> 16 ;
17 [label="Number_hospitalized_cube <= 124852.0\nmse = 6.25\nsamples = 2\nvalue = 11.5", fillcolor="#e581391f"] ;
13 -> 17 ;
18 [label="mse = 0.0\nsamples = 1\nvalue = 14.0", fillcolor="#e5813926"] ;
17 -> 18 ;
19 [label="mse = 0.0\nsamples = 1\nvalue = 9.0", fillcolor="#e5813918"] ;
17 -> 19 ;
20 [label="mse = 0.0\nsamples = 1\nvalue = 0.0", fillcolor="#e5813900"] ;
12 -> 20 ;
21 [label="Number_hospitalized_cube <= 6720967.0\nmse = 89.76\nsamples = 5\nvalue = 30.2", fillcolor="#e5813951"] ;
1 -> 21 ;
22 [label="Number_hospitalized_sq <= 23125.0\nmse = 9.0\nsamples = 2\nvalue = 25.0", fillcolor="#e5813943"] ;
21 -> 22 ;
23 [label="mse = 0.0\nsamples = 1\nvalue = 22.0", fillcolor="#e581393b"] ;
22 -> 23 ;
24 [label="mse = 0.0\nsamples = 1\nvalue = 28.0", fillcolor="#e581394b"] ;
22 -> 24 ;
25 [label="Number_hospitalized <= 375.0\nmse = 113.556\nsamples = 3\nvalue = 33.667", fillcolor="#e581395a"] ;
21 -> 25 ;
26 [label="mse = 0.0\nsamples = 1\nvalue = 44.0", fillcolor="#e5813976"] ;
25 -> 26 ;
27 [label="Number_hospitalized_sq <= 333344.5\nmse = 90.25\nsamples = 2\nvalue = 28.5", fillcolor="#e581394c"] ;
25 -> 27 ;
28 [label="mse = 0.0\nsamples = 1\nvalue = 19.0", fillcolor="#e5813933"] ;
27 -> 28 ;
29 [label="mse = 0.0\nsamples = 1\nvalue = 38.0", fillcolor="#e5813966"] ;
27 -> 29 ;
30 [label="Number_confirmed <= 2972.5\nmse = 237.076\nsamples = 12\nvalue = 75.417", fillcolor="#e58139ca"] ;
0 -> 30 [labeldistance=2.5, labelangle=-45, headlabel="False"] ;
31 [label="Number_tested <= 3830.5\nmse = 80.472\nsamples = 6\nvalue = 63.167", fillcolor="#e58139aa"] ;
30 -> 31 ;
32 [label="Number_confirmed <= 2048.5\nmse = 36.0\nsamples = 2\nvalue = 72.0", fillcolor="#e58139c1"] ;
31 -> 32 ;
33 [label="mse = 0.0\nsamples = 1\nvalue = 66.0", fillcolor="#e58139b1"] ;
32 -> 33 ;
34 [label="mse = 0.0\nsamples = 1\nvalue = 78.0", fillcolor="#e58139d1"] ;
32 -> 34 ;
35 [label="Number_tested <= 4940.5\nmse = 44.188\nsamples = 4\nvalue = 58.75", fillcolor="#e581399e"] ;
31 -> 35 ;
36 [label="Number_tested <= 4452.5\nmse = 6.25\nsamples = 2\nvalue = 52.5", fillcolor="#e581398d"] ;
35 -> 36 ;
37 [label="mse = 0.0\nsamples = 1\nvalue = 55.0", fillcolor="#e5813994"] ;
36 -> 37 ;
38 [label="mse = 0.0\nsamples = 1\nvalue = 50.0", fillcolor="#e5813986"] ;
36 -> 38 ;
39 [label="Number_confirmed <= 2516.0\nmse = 4.0\nsamples = 2\nvalue = 65.0", fillcolor="#e58139ae"] ;
35 -> 39 ;
40 [label="mse = 0.0\nsamples = 1\nvalue = 63.0", fillcolor="#e58139a9"] ;
39 -> 40 ;
41 [label="mse = 0.0\nsamples = 1\nvalue = 67.0", fillcolor="#e58139b4"] ;
39 -> 41 ;
42 [label="Number_tested <= 4654.0\nmse = 93.556\nsamples = 6\nvalue = 87.667", fillcolor="#e58139eb"] ;
30 -> 42 ;
43 [label="mse = 0.0\nsamples = 1\nvalue = 67.0", fillcolor="#e58139b4"] ;
42 -> 43 ;
44 [label="Number_hospitalized_cube <= 167584848.0\nmse = 9.76\nsamples = 5\nvalue = 91.8", fillcolor="#e58139f6"] ;
42 -> 44 ;
45 [label="mse = 0.0\nsamples = 1\nvalue = 86.0", fillcolor="#e58139e7"] ;
44 -> 45 ;
46 [label="Number_tested <= 5958.5\nmse = 1.688\nsamples = 4\nvalue = 93.25", fillcolor="#e58139fa"] ;
44 -> 46 ;
47 [label="Number_tested <= 4777.5\nmse = 0.889\nsamples = 3\nvalue = 92.667", fillcolor="#e58139f9"] ;
46 -> 47 ;
48 [label="mse = 0.0\nsamples = 1\nvalue = 94.0", fillcolor="#e58139fc"] ;
47 -> 48 ;
49 [label="mse = 0.0\nsamples = 2\nvalue = 92.0", fillcolor="#e58139f7"] ;
47 -> 49 ;
50 [label="mse = 0.0\nsamples = 1\nvalue = 95.0", fillcolor="#e58139ff"] ;
46 -> 50 ;
}